/*!
 * The following copyright notice may not be removed under any circumstances.
 * 
 * Copyright:
 * This font was created by MyFont.co.il 1999. All rights reserved.
 * 
 * Trademark:
 * Fontomania (c) 1999. All rights reserved.
 */
Cufon.registerFont({"w":317,"face":{"font-family":"Samurai","font-weight":400,"font-stretch":"normal","units-per-em":"360","panose-1":"2 11 6 3 5 3 2 2 2 4","ascent":"288","descent":"-72","x-height":"29","cap-height":"7","bbox":"-91 -393 422.144 129","underline-thickness":"0","underline-position":"0","unicode-range":"U+0020-U+007E"},"glyphs":{" ":{},"!":{"d":"9,-330v60,-29,100,27,100,94v0,53,-17,119,-52,197r-35,1v46,-82,23,-174,-13,-266r0,-26xm22,-10r20,19r21,-19r0,42r-21,-13r-20,13r0,-42","w":119},"\"":{"d":"132,-380v40,59,34,107,0,154r-39,0v51,-45,42,-98,0,-154r39,0xm53,-380v40,59,34,107,0,154r-40,0v52,-45,43,-98,0,-154r40,0","w":175},"'":{"d":"53,-380v40,59,34,107,0,154r-40,0v52,-45,43,-98,0,-154r40,0","w":104},"(":{"d":"262,-388v-273,158,-220,348,62,496r-33,21v-189,-126,-284,-238,-284,-338v0,-83,72,-144,215,-184","w":248},")":{"d":"-27,-388r38,-5v143,40,215,101,215,184v0,100,-95,212,-284,338r-33,-21v281,-153,336,-334,64,-496","w":253},",":{"d":"54,-88v40,59,34,105,0,153r-39,0v50,-45,41,-97,0,-153r39,0","w":104},"-":{"d":"267,-141v-55,-49,-185,-40,-264,-2v10,-69,116,-68,183,-42v31,12,58,26,81,44","w":280},"\u2010":{"d":"267,-141v-55,-49,-185,-40,-264,-2v10,-69,116,-68,183,-42v31,12,58,26,81,44","w":280},".":{"d":"77,-71v-13,23,-17,43,0,68v-26,-12,-46,-14,-68,0v12,-22,12,-46,0,-68v22,15,45,15,68,0","w":92},"\/":{"d":"221,-369r31,19v-71,56,-121,172,-148,349r-16,33v-38,3,-62,-32,-61,-71v5,-118,112,-249,194,-330","w":263},"0":{"d":"119,-347v38,-7,63,8,98,-5r40,3v-11,6,-23,10,-33,14v103,30,153,70,150,122v-3,52,-56,109,-161,172v31,17,67,32,107,47r-33,16v-40,-18,-72,-35,-97,-50v-23,13,-57,30,-101,52r-33,-16v41,-15,79,-31,111,-49v-105,-63,-159,-120,-164,-172v-5,-52,43,-92,143,-122v-6,-2,-15,-6,-27,-12xm190,-55v132,-84,154,-179,-4,-260v-152,82,-139,174,4,260","w":396},"1":{"d":"88,30v-50,12,-77,-26,-78,-72v-1,-74,43,-173,137,-296r35,10v-62,63,-90,172,-85,327","w":190},"2":{"d":"4,-51v39,3,46,8,82,28v207,-108,188,-222,-35,-312r40,-4v308,62,259,198,21,328v75,30,132,-40,193,-40r0,40v-72,0,-113,69,-193,39r-38,-19v-18,8,-18,8,-53,26r-32,-15v3,-1,22,-10,57,-24v-17,-5,-30,-7,-42,-7r0,-40","w":322},"3":{"d":"211,-312v-2,4,-10,9,-15,18v-13,73,-32,122,-59,149v132,53,103,77,-32,126v-41,15,-87,32,-136,54r30,-35v33,-22,69,-41,111,-67v40,-25,53,-38,12,-65v-23,24,-62,3,-96,0v18,-4,36,-12,52,-23r-73,-30v32,3,54,16,83,23v44,-32,72,-72,85,-119v-63,12,-110,-11,-167,-31r-4,-24v69,44,159,12,209,-25r0,49","w":237},"4":{"d":"256,-360v-82,34,-178,77,-178,156v0,41,27,81,81,119v13,-71,57,-156,133,-254r36,9v-57,57,-86,155,-86,293v29,14,55,25,77,33r-34,14v-10,-4,-23,-12,-42,-21v0,17,-7,26,-10,40v-56,12,-83,-32,-78,-88v-211,-127,-219,-249,62,-305","w":343},"5":{"d":"77,-92v-53,12,-83,-37,-59,-88v-5,-1,-9,-3,-12,-5r13,1v10,-27,30,-59,60,-96v-7,-3,-16,-11,-27,-23r0,-42v24,14,44,24,60,29v4,-7,11,-13,17,-18r30,6v-9,8,-16,14,-20,19v45,10,83,6,122,-14r-4,21v-66,21,-113,30,-143,29v-15,31,-25,68,-28,111v68,22,110,40,126,55v8,7,12,13,12,20v0,18,-36,40,-109,65v-46,15,-95,34,-145,57v34,-42,33,-38,109,-75v38,-18,74,-38,82,-61v0,-14,-25,-30,-75,-52v-1,24,2,47,-9,61","w":273},"6":{"d":"97,-12v130,-46,139,-84,34,-146v54,1,124,15,124,57v0,53,-100,94,-161,110r-6,21v-22,5,-39,1,-54,-10r-71,3r62,-15v-18,-29,-15,-76,-5,-119v13,-57,55,-133,127,-227r35,10v-60,60,-88,166,-85,316","w":272},"7":{"d":"155,30v-49,11,-78,-27,-77,-74v0,-59,28,-132,84,-218v-56,8,-103,-2,-143,-27r-17,-62v61,46,120,68,175,66v3,-6,29,-41,38,-53r35,10v-11,11,-19,21,-26,33v12,-5,23,-11,34,-19r3,25v-20,8,-37,15,-51,18v-34,66,-49,156,-45,270","w":273},"8":{"d":"159,34v-58,-4,-99,-68,-71,-139v-148,-123,-95,-211,131,-256r40,3v-85,35,-138,70,-161,107v-23,36,-23,74,2,109v22,-55,61,-121,119,-197r35,9v-69,94,-111,168,-123,222v37,34,97,68,178,101v9,0,15,1,17,3v4,4,-9,10,-37,17v-37,9,-80,14,-130,21xm128,-77v2,39,14,73,68,69r50,0v-46,-23,-85,-47,-118,-69","w":347},"9":{"d":"132,32v-50,13,-78,-29,-78,-76v0,-37,12,-81,36,-131v-141,-78,-105,-126,82,-158r145,-10v-24,3,-56,7,-97,15r6,2v-37,38,-60,91,-73,161v20,10,42,20,66,28v-27,0,-51,2,-70,-9v-7,43,-10,91,-8,146xm100,-194v21,-40,47,-82,79,-124v-51,14,-88,30,-107,52v-24,29,-4,47,28,72","w":332},":":{"d":"78,-247v-12,22,-15,46,0,68v-26,-12,-46,-13,-68,0v14,-23,13,-44,0,-68v24,15,45,15,68,0xm77,-71v-13,23,-17,43,0,68v-26,-12,-46,-14,-68,0v12,-22,12,-46,0,-68v22,15,45,15,68,0","w":104},";":{"d":"78,-247v-12,22,-15,46,0,68v-26,-12,-46,-13,-68,0v14,-23,13,-44,0,-68v24,15,45,15,68,0xm54,-156v40,59,34,107,0,154r-39,0v51,-44,42,-98,0,-154r39,0","w":104},"<":{"d":"81,-172v0,76,150,134,241,162r-33,12v-189,-75,-284,-142,-284,-201v0,-50,71,-86,214,-110r40,3v-119,41,-178,86,-178,134","w":337},"=":{"d":"267,-141v-55,-49,-185,-40,-264,-2v10,-69,116,-68,183,-42v31,12,58,26,81,44xm266,-72v-54,-49,-189,-38,-264,-1v26,-105,216,-49,264,1","w":280},">":{"d":"65,-307r40,-3v143,23,215,60,215,110v0,60,-95,126,-284,201r-33,-12v278,-88,336,-200,62,-296","w":348},"?":{"d":"102,-291v-28,0,-57,15,-56,40v-6,23,35,66,45,84v-55,-29,-83,-60,-83,-94v0,-48,63,-79,115,-79v74,0,113,48,113,121v0,44,-15,96,-43,158r-33,10v24,-51,37,-94,37,-127v0,-68,-44,-113,-95,-113xm212,-25v-12,21,-15,40,0,63v-26,-12,-46,-11,-64,0v10,-20,11,-43,0,-63v20,14,43,13,64,0","w":299},"A":{"d":"81,29v-50,14,-77,-26,-77,-77v0,-39,13,-85,39,-138r0,-35v2,6,7,10,10,15v20,-38,50,-82,88,-133r35,9v-4,4,-7,7,-8,9v6,57,21,117,44,180v8,-8,17,-19,26,-34r0,39v-8,13,-7,13,-14,24v10,28,24,61,42,99r-37,12v-11,-21,-23,-49,-35,-81v-39,29,-68,14,-101,-23v-7,45,4,101,-12,134xm181,-122v-15,-44,-29,-96,-43,-156v-19,35,-32,76,-40,125v29,25,49,38,83,31","w":279},"B":{"d":"162,-315r36,0v107,63,82,120,-23,183v79,56,79,109,-10,160r-41,0v73,-41,74,-91,15,-148r-26,0r15,-10r-30,-23v-8,46,-9,98,-7,150r-10,32v-49,11,-76,-24,-77,-73v-2,-74,43,-172,137,-295r35,9v-3,3,-8,8,-14,15xm101,-166v26,-3,35,11,51,18v72,-57,90,-116,9,-166v-30,38,-50,88,-60,148","w":290},"C":{"d":"83,-179v0,91,141,157,241,194r-33,15v-189,-90,-284,-170,-284,-242v0,-59,72,-102,215,-131r40,3v-119,49,-179,103,-179,161","w":340},"D":{"d":"5,-44v0,-117,42,-159,119,-272v-16,-8,-16,-8,-49,-23v24,-1,45,0,61,7v6,-15,27,2,40,2r-9,9v99,38,149,80,149,128v0,62,-78,124,-225,190r-10,32v-21,4,-36,3,-51,-9v-6,2,-12,4,-20,7r-31,-18r34,-10v-5,-11,-8,-26,-8,-43xm90,-29v190,-79,233,-174,63,-273v-43,61,-64,152,-63,273","w":352},"E":{"d":"254,-69v8,120,-86,124,-163,66r-10,32v-46,9,-73,-13,-77,-63v-6,-67,29,-155,106,-264v-9,-7,-2,-29,-4,-43v7,9,13,16,19,22v1,-1,7,-8,16,-20r35,9v-9,9,-17,19,-25,30v59,29,100,6,151,-41v7,118,-85,129,-164,63v-16,30,-29,68,-37,113v65,-43,124,-43,169,19r0,40v-67,-47,-115,-73,-174,-28v-4,33,-6,67,-6,100v60,38,111,16,164,-35"},"F":{"d":"302,-341v7,118,-85,129,-164,63v-16,30,-29,68,-37,113v65,-43,124,-43,169,19r0,40v-67,-47,-115,-73,-174,-28v-11,50,3,121,-15,163v-46,9,-73,-13,-77,-63v-6,-67,29,-155,106,-264v-9,-7,-2,-29,-4,-43v7,9,13,16,19,22v1,-1,7,-8,16,-20r35,9v-9,9,-17,19,-25,30v59,29,100,6,151,-41"},"G":{"d":"285,11v-4,-87,4,-135,-37,-135v-17,0,-43,13,-74,39r11,-38v31,-32,54,-49,68,-49v36,0,42,82,43,146xm94,36v-37,0,-88,-41,-88,-103v0,-65,45,-156,135,-272r35,9v-72,117,-108,203,-108,256v0,79,86,59,139,23v34,-23,49,-42,47,-60r14,32v-27,47,-111,115,-174,115","w":310},"H":{"d":"232,-89v-46,38,-102,-30,-137,-35v-9,48,4,114,-14,153v-49,11,-76,-24,-77,-73v-2,-74,43,-172,137,-295r35,9v-38,38,-62,95,-75,168v35,5,52,46,94,45v17,0,35,-7,53,-22v22,-59,61,-125,117,-199r35,10v-62,60,-92,182,-85,327r-10,31v-66,15,-93,-54,-73,-119","w":419},"I":{"d":"138,-307v69,105,104,149,113,263v0,12,-1,23,-4,32v26,-9,50,-28,72,-58v3,91,-121,137,-185,77v-21,-19,-34,-45,-38,-77v21,27,44,45,69,55v3,-131,-20,-229,-67,-293v-36,6,-68,27,-97,63v2,-90,125,-141,190,-74v20,20,31,44,32,74v-24,-34,-53,-54,-85,-62","w":333},"J":{"d":"114,-340v8,11,8,10,23,32v45,2,93,-4,143,-18r-127,41v47,73,89,145,87,232v-2,75,-116,116,-170,58v-18,-20,-31,-41,-34,-68v46,57,97,91,119,16v23,-78,-6,-172,-35,-227v-65,27,-127,11,-115,-67v16,15,47,24,93,30v-6,-8,-10,-14,-16,-21","w":293},"K":{"d":"204,10v-12,-38,60,-94,11,-128v-17,-12,-36,-16,-44,-37v-25,8,-50,13,-74,14v-7,42,-8,90,-6,138r-10,32v-49,11,-76,-24,-77,-73v-2,-74,43,-172,137,-295r35,9v-38,38,-63,95,-76,170v99,-19,171,-85,185,-186v98,54,-12,149,-77,176v7,33,68,35,63,79v3,20,-41,67,-29,90","w":343},"L":{"d":"104,9v79,-3,142,-33,139,-107v58,32,61,73,3,104v-82,45,-262,46,-297,-39v6,18,29,32,69,40v-19,-31,-15,-73,-4,-119v13,-57,55,-133,127,-227r35,9v-62,60,-92,182,-85,327","w":306},"M":{"d":"212,-224v-27,0,-43,-61,-69,-63v-40,65,-57,169,-52,284r-10,32v-49,11,-76,-24,-77,-73v-2,-74,44,-174,138,-296v35,5,51,94,95,48v10,-17,21,-41,46,-42v92,122,137,219,134,292v-2,45,-29,82,-77,71r-10,-32v3,-124,-15,-218,-53,-283v-24,5,-40,62,-65,62","w":438},"N":{"d":"286,-334v49,-11,77,25,78,72v2,75,-46,172,-136,296r-43,0v-11,-99,7,-276,-27,-343v-50,64,-73,176,-67,306r-10,32v-49,11,-76,-24,-77,-73v-2,-74,43,-172,137,-295r36,-13v61,50,47,207,47,334v38,-65,55,-160,52,-284","w":382},"O":{"d":"6,-153v0,-96,63,-190,152,-190v89,0,151,95,151,190v0,93,-62,190,-151,190v-91,0,-152,-94,-152,-190xm160,-79v99,-2,100,-210,0,-213v-99,2,-99,212,0,213","w":324},"P":{"d":"93,-317r-19,-35v21,7,41,12,63,18v7,-11,26,3,39,4v-3,3,-5,6,-6,7v47,15,80,26,101,36v46,22,69,45,69,69v0,40,-58,90,-176,150r-32,-18v69,-33,134,-60,151,-103v-10,-42,-73,-72,-137,-103v-42,65,-60,170,-55,289r-10,32v-46,13,-74,-21,-77,-65v-5,-66,31,-156,112,-270v-5,-3,-13,-6,-23,-11","w":364},"Q":{"d":"5,-172v0,-86,55,-170,136,-170v129,0,178,206,92,295v17,26,25,46,25,62r-39,0v0,-11,-4,-23,-12,-38v-101,67,-202,-36,-202,-149xm143,-296v-88,1,-88,189,0,191v2,0,6,-1,11,-2v-8,-13,-11,-26,-11,-39r40,0v0,7,1,13,3,19v44,-46,25,-169,-43,-169","w":289},"R":{"d":"148,-93v54,-25,126,-59,135,-98v-11,-42,-73,-71,-137,-101v-42,65,-60,170,-55,289r-10,32v-46,13,-74,-21,-77,-65v-5,-66,31,-156,112,-270v-5,-3,-13,-6,-23,-11r-19,-35v21,7,41,12,63,18v7,-11,26,3,39,4v-3,3,-5,6,-6,7v47,15,80,26,101,36v46,22,69,45,69,69v0,40,-58,90,-176,150r-6,-3v28,44,101,67,175,70r-23,38v-75,-19,-154,-46,-185,-114r19,-35v0,6,2,12,4,19","w":364},"S":{"d":"270,-51v29,97,-171,89,-264,71v76,-14,142,-28,179,-58v20,-25,1,-41,-23,-72v-30,-39,-149,-134,-154,-186v-4,-38,55,-50,102,-50v34,0,105,9,149,16v-78,19,-128,35,-147,49v-46,35,-14,48,36,93v63,56,110,98,122,137","w":299},"T":{"d":"2,-157v6,-89,58,-194,141,-192v82,2,132,106,149,194v-28,3,-62,14,-87,12v11,-10,39,-43,31,-65v-4,-27,-25,-57,-64,-89v-43,65,-65,172,-59,294r-10,32v-46,11,-73,-21,-76,-63v-5,-66,29,-153,105,-262v-40,11,-84,57,-130,139","w":305},"U":{"d":"141,18v-74,24,-146,-2,-137,-84v7,-65,51,-155,139,-271r35,9v-66,85,-102,157,-106,217v-2,47,16,87,59,86v39,0,72,-32,90,-61v37,-57,42,-143,42,-237v0,-18,2,-27,8,-27v44,50,44,222,1,275v-35,43,-75,76,-131,93","w":321},"V":{"d":"90,-1v109,-64,226,-179,158,-331r52,-1v28,43,42,78,28,127v-21,72,-77,135,-166,187r-82,48v-48,12,-76,-28,-76,-75v0,-75,46,-173,137,-293r35,9v-64,60,-90,186,-86,329","w":363},"W":{"d":"194,-72v42,-37,57,46,87,53v38,-67,56,-162,53,-286r11,-32v48,-11,75,26,77,72v3,72,-41,170,-134,294v-3,4,-33,-14,-31,-16v-26,-57,-64,-45,-82,-2v-8,12,-19,22,-32,23v-95,-122,-141,-222,-138,-298v1,-48,27,-83,78,-73v8,20,9,43,9,71v0,106,18,189,54,248v24,-2,33,-41,48,-54","w":445},"X":{"d":"56,-207v-21,-57,-23,-67,-53,-105r30,-26v19,23,35,52,48,88v24,-38,44,-68,60,-88r35,10v-33,34,-55,81,-69,142v35,79,141,96,193,159r-30,26v-39,-51,-135,-76,-173,-130v-10,52,1,118,-15,161v-50,11,-79,-27,-78,-76v0,-45,18,-99,52,-161","w":315},"Y":{"d":"30,-332v63,-25,80,37,98,105v20,-34,44,-71,74,-111r36,10v-62,63,-90,172,-85,327r-10,31v-51,11,-79,-26,-78,-75v0,-42,16,-92,46,-151v-16,-68,-41,-98,-110,-108","w":248},"Z":{"d":"324,-51v-73,2,-120,68,-203,41v-15,-5,-56,-27,-68,-32v179,-71,268,-135,268,-192v0,-49,-72,-86,-215,-109r-39,3v119,40,178,84,178,132v0,74,-143,134,-241,157r0,40v48,-4,114,46,160,46v59,0,108,-49,160,-46r0,-40","w":340},"\\":{"d":"39,-369v121,134,186,208,192,330v2,41,-21,73,-59,71r-17,-33v-28,-177,-77,-293,-147,-349","w":248},"a":{"d":"81,29v-50,14,-77,-26,-77,-77v0,-39,13,-85,39,-138r0,-35v2,6,7,10,10,15v20,-38,50,-82,88,-133r35,9v-4,4,-7,7,-8,9v6,57,21,117,44,180v8,-8,17,-19,26,-34r0,39v-8,13,-7,13,-14,24v10,28,24,61,42,99r-37,12v-11,-21,-23,-49,-35,-81v-39,29,-68,14,-101,-23v-7,45,4,101,-12,134xm181,-122v-15,-44,-29,-96,-43,-156v-19,35,-32,76,-40,125v29,25,49,38,83,31","w":279},"b":{"d":"162,-315r36,0v107,63,82,120,-23,183v79,56,79,109,-10,160r-41,0v73,-41,74,-91,15,-148r-26,0r15,-10r-30,-23v-8,46,-9,98,-7,150r-10,32v-49,11,-76,-24,-77,-73v-2,-74,43,-172,137,-295r35,9v-3,3,-8,8,-14,15xm101,-166v26,-3,35,11,51,18v72,-57,90,-116,9,-166v-30,38,-50,88,-60,148","w":290},"c":{"d":"83,-179v0,91,141,157,241,194r-33,15v-189,-90,-284,-170,-284,-242v0,-59,72,-102,215,-131r40,3v-119,49,-179,103,-179,161","w":340},"d":{"d":"5,-44v0,-117,42,-159,119,-272v-16,-8,-16,-8,-49,-23v24,-1,45,0,61,7v6,-15,27,2,40,2r-9,9v99,38,149,80,149,128v0,62,-78,124,-225,190r-10,32v-21,4,-36,3,-51,-9v-6,2,-12,4,-20,7r-31,-18r34,-10v-5,-11,-8,-26,-8,-43xm90,-29v190,-79,233,-174,63,-273v-43,61,-64,152,-63,273","w":352},"e":{"d":"254,-69v8,120,-86,124,-163,66r-10,32v-46,9,-73,-13,-77,-63v-6,-67,29,-155,106,-264v-9,-7,-2,-29,-4,-43v7,9,13,16,19,22v1,-1,7,-8,16,-20r35,9v-9,9,-17,19,-25,30v59,29,100,6,151,-41v7,118,-85,129,-164,63v-16,30,-29,68,-37,113v65,-43,124,-43,169,19r0,40v-67,-47,-115,-73,-174,-28v-4,33,-6,67,-6,100v60,38,111,16,164,-35"},"f":{"d":"302,-341v7,118,-85,129,-164,63v-16,30,-29,68,-37,113v65,-43,124,-43,169,19r0,40v-67,-47,-115,-73,-174,-28v-11,50,3,121,-15,163v-46,9,-73,-13,-77,-63v-6,-67,29,-155,106,-264v-9,-7,-2,-29,-4,-43v7,9,13,16,19,22v1,-1,7,-8,16,-20r35,9v-9,9,-17,19,-25,30v59,29,100,6,151,-41"},"g":{"d":"285,11v-4,-87,4,-135,-37,-135v-17,0,-43,13,-74,39r11,-38v31,-32,54,-49,68,-49v36,0,42,82,43,146xm94,36v-37,0,-88,-41,-88,-103v0,-65,45,-156,135,-272r35,9v-72,117,-108,203,-108,256v0,79,86,59,139,23v34,-23,49,-42,47,-60r14,32v-27,47,-111,115,-174,115","w":310},"h":{"d":"232,-89v-46,38,-102,-30,-137,-35v-9,48,4,114,-14,153v-49,11,-76,-24,-77,-73v-2,-74,43,-172,137,-295r35,9v-38,38,-62,95,-75,168v35,5,52,46,94,45v17,0,35,-7,53,-22v22,-59,61,-125,117,-199r35,10v-62,60,-92,182,-85,327r-10,31v-66,15,-93,-54,-73,-119","w":419},"i":{"d":"138,-307v69,105,104,149,113,263v0,12,-1,23,-4,32v26,-9,50,-28,72,-58v3,91,-121,137,-185,77v-21,-19,-34,-45,-38,-77v21,27,44,45,69,55v3,-131,-20,-229,-67,-293v-36,6,-68,27,-97,63v2,-90,125,-141,190,-74v20,20,31,44,32,74v-24,-34,-53,-54,-85,-62","w":333},"j":{"d":"114,-340v8,11,8,10,23,32v45,2,93,-4,143,-18r-127,41v47,73,89,145,87,232v-2,75,-116,116,-170,58v-18,-20,-31,-41,-34,-68v46,57,97,91,119,16v23,-78,-6,-172,-35,-227v-65,27,-127,11,-115,-67v16,15,47,24,93,30v-6,-8,-10,-14,-16,-21","w":293},"k":{"d":"204,10v-12,-38,60,-94,11,-128v-17,-12,-36,-16,-44,-37v-25,8,-50,13,-74,14v-7,42,-8,90,-6,138r-10,32v-49,11,-76,-24,-77,-73v-2,-74,43,-172,137,-295r35,9v-38,38,-63,95,-76,170v99,-19,171,-85,185,-186v98,54,-12,149,-77,176v7,33,68,35,63,79v3,20,-41,67,-29,90","w":343},"l":{"d":"104,9v79,-3,142,-33,139,-107v58,32,61,73,3,104v-82,45,-262,46,-297,-39v6,18,29,32,69,40v-19,-31,-15,-73,-4,-119v13,-57,55,-133,127,-227r35,9v-62,60,-92,182,-85,327","w":306},"m":{"d":"212,-224v-27,0,-43,-61,-69,-63v-40,65,-57,169,-52,284r-10,32v-49,11,-76,-24,-77,-73v-2,-74,44,-174,138,-296v35,5,51,94,95,48v10,-17,21,-41,46,-42v92,122,137,219,134,292v-2,45,-29,82,-77,71r-10,-32v3,-124,-15,-218,-53,-283v-24,5,-40,62,-65,62","w":438},"n":{"d":"286,-334v49,-11,77,25,78,72v2,75,-46,172,-136,296r-43,0v-11,-99,7,-276,-27,-343v-50,64,-73,176,-67,306r-10,32v-49,11,-76,-24,-77,-73v-2,-74,43,-172,137,-295r36,-13v61,50,47,207,47,334v38,-65,55,-160,52,-284","w":382},"o":{"d":"6,-153v0,-96,63,-190,152,-190v89,0,151,95,151,190v0,93,-62,190,-151,190v-91,0,-152,-94,-152,-190xm160,-79v99,-2,100,-210,0,-213v-99,2,-99,212,0,213","w":324},"p":{"d":"93,-317r-19,-35v21,7,41,12,63,18v7,-11,26,3,39,4v-3,3,-5,6,-6,7v47,15,80,26,101,36v46,22,69,45,69,69v0,40,-58,90,-176,150r-32,-18v69,-33,134,-60,151,-103v-10,-42,-73,-72,-137,-103v-42,65,-60,170,-55,289r-10,32v-46,13,-74,-21,-77,-65v-5,-66,31,-156,112,-270v-5,-3,-13,-6,-23,-11","w":364},"q":{"d":"5,-172v0,-86,55,-170,136,-170v129,0,178,206,92,295v17,26,25,46,25,62r-39,0v0,-11,-4,-23,-12,-38v-101,67,-202,-36,-202,-149xm143,-296v-88,1,-88,189,0,191v2,0,6,-1,11,-2v-8,-13,-11,-26,-11,-39r40,0v0,7,1,13,3,19v44,-46,25,-169,-43,-169","w":289},"r":{"d":"148,-93v54,-25,126,-59,135,-98v-11,-42,-73,-71,-137,-101v-42,65,-60,170,-55,289r-10,32v-46,13,-74,-21,-77,-65v-5,-66,31,-156,112,-270v-5,-3,-13,-6,-23,-11r-19,-35v21,7,41,12,63,18v7,-11,26,3,39,4v-3,3,-5,6,-6,7v47,15,80,26,101,36v46,22,69,45,69,69v0,40,-58,90,-176,150r-6,-3v28,44,101,67,175,70r-23,38v-75,-19,-154,-46,-185,-114r19,-35v0,6,2,12,4,19","w":364},"s":{"d":"270,-51v29,97,-171,89,-264,71v76,-14,142,-28,179,-58v20,-25,1,-41,-23,-72v-30,-39,-149,-134,-154,-186v-4,-38,55,-50,102,-50v34,0,105,9,149,16v-78,19,-128,35,-147,49v-46,35,-14,48,36,93v63,56,110,98,122,137","w":299},"t":{"d":"2,-157v6,-89,58,-194,141,-192v82,2,132,106,149,194v-28,3,-62,14,-87,12v11,-10,39,-43,31,-65v-4,-27,-25,-57,-64,-89v-43,65,-65,172,-59,294r-10,32v-46,11,-73,-21,-76,-63v-5,-66,29,-153,105,-262v-40,11,-84,57,-130,139","w":305},"u":{"d":"141,18v-74,24,-146,-2,-137,-84v7,-65,51,-155,139,-271r35,9v-66,85,-102,157,-106,217v-2,47,16,87,59,86v39,0,72,-32,90,-61v37,-57,42,-143,42,-237v0,-18,2,-27,8,-27v44,50,44,222,1,275v-35,43,-75,76,-131,93","w":321},"v":{"d":"90,-1v109,-64,226,-179,158,-331r52,-1v28,43,42,78,28,127v-21,72,-77,135,-166,187r-82,48v-48,12,-76,-28,-76,-75v0,-75,46,-173,137,-293r35,9v-64,60,-90,186,-86,329","w":363},"w":{"d":"194,-72v42,-37,57,46,87,53v38,-67,56,-162,53,-286r11,-32v48,-11,75,26,77,72v3,72,-41,170,-134,294v-3,4,-33,-14,-31,-16v-26,-57,-64,-45,-82,-2v-8,12,-19,22,-32,23v-95,-122,-141,-222,-138,-298v1,-48,27,-83,78,-73v8,20,9,43,9,71v0,106,18,189,54,248v24,-2,33,-41,48,-54","w":445},"x":{"d":"56,-207v-21,-57,-23,-67,-53,-105r30,-26v19,23,35,52,48,88v24,-38,44,-68,60,-88r35,10v-33,34,-55,81,-69,142v35,79,141,96,193,159r-30,26v-39,-51,-135,-76,-173,-130v-10,52,1,118,-15,161v-50,11,-79,-27,-78,-76v0,-45,18,-99,52,-161","w":315},"y":{"d":"30,-332v64,-25,80,37,98,105v20,-34,44,-71,74,-111r36,10v-62,63,-90,172,-85,327r-10,31v-51,11,-79,-26,-78,-75v0,-42,16,-92,46,-151v-16,-68,-41,-98,-110,-108","w":248},"z":{"d":"324,-51v-73,2,-120,68,-203,41v-15,-5,-56,-27,-68,-32v179,-71,268,-135,268,-192v0,-49,-72,-86,-215,-109r-39,3v277,90,212,212,-63,289r0,40v48,-4,114,46,160,46v59,0,108,-49,160,-46r0,-40","w":340},"~":{"d":"113,-251v-35,0,-73,-52,-109,-47r0,-40v27,-3,81,51,109,47v39,3,67,-48,109,-47r0,40v-49,-2,-60,47,-109,47","w":232},"\u00a0":{}}});
